<?xml version="1.0"?>
<opencv_storage>
<stage10>
  <maxWeakCount>19</maxWeakCount>
  <stageThreshold>-1.1234252452850342e+00</stageThreshold>
  <weakClassifiers>
    <_>
      <internalNodes>
        0 -1 13270 7.0088818669319153e-02</internalNodes>
      <leafValues>
        -9.5444686710834503e-02 7.1976399421691895e-01</leafValues></_>
    <_>
      <internalNodes>
        0 -1 99712 -2.7320560067892075e-02</internalNodes>
      <leafValues>
        -8.4085524082183838e-01 1.9107010960578918e-01</leafValues></_>
    <_>
      <internalNodes>
        0 -1 452662 -9.2198401689529419e-02</internalNodes>
      <leafValues>
        -9.5284509658813477e-01 1.3572293519973755e-01</leafValues></_>
    <_>
      <internalNodes>
        0 -1 18736 9.4798589125275612e-03</internalNodes>
      <leafValues>
        -2.5965917110443115e-01 6.2304949760437012e-01</leafValues></_>
    <_>
      <internalNodes>
        0 -1 54502 2.2065206430852413e-03</internalNodes>
      <leafValues>
        -3.1475815176963806e-01 4.6637091040611267e-01</leafValues></_>
    <_>
      <internalNodes>
        0 -1 5049 -3.0469410121440887e-02</internalNodes>
      <leafValues>
        -9.4781386852264404e-01 2.4556320905685425e-01</leafValues></_>
    <_>
      <internalNodes>
        0 -1 988599 -1.5312553383409977e-02</internalNodes>
      <leafValues>
        4.8842424154281616e-01 -2.9012563824653625e-01</leafValues></_>
    <_>
      <internalNodes>
        0 -1 584787 4.9133496358990669e-03</internalNodes>
      <leafValues>
        -2.9626780748367310e-01 4.4494143128395081e-01</leafValues></_>
    <_>
      <internalNodes>
        0 -1 242615 2.5827215984463692e-02</internalNodes>
      <leafValues>
        1.2499491125345230e-01 -9.3486863374710083e-01</leafValues></_>
    <_>
      <internalNodes>
        0 -1 760757 3.5592364147305489e-03</internalNodes>
      <leafValues>
        -2.7092859148979187e-01 6.5970999002456665e-01</leafValues></_>
    <_>
      <internalNodes>
        0 -1 29117 1.2238488532602787e-02</internalNodes>
      <leafValues>
        2.0336559414863586e-01 -8.8651692867279053e-01</leafValues></_>
    <_>
      <internalNodes>
        0 -1 1032413 7.3235407471656799e-02</internalNodes>
      <leafValues>
        -2.0960216224193573e-01 8.4069693088531494e-01</leafValues></_>
    <_>
      <internalNodes>
        0 -1 950447 1.1971220374107361e-03</internalNodes>
      <leafValues>
        -2.3810850083827972e-01 5.5169773101806641e-01</leafValues></_>
    <_>
      <internalNodes>
        0 -1 311253 9.7354128956794739e-03</internalNodes>
      <leafValues>
        -1.4058986306190491e-01 8.3532482385635376e-01</leafValues></_>
    <_>
      <internalNodes>
        0 -1 430563 -7.4579976499080658e-03</internalNodes>
      <leafValues>
        -7.1571564674377441e-01 2.3176518082618713e-01</leafValues></_>
    <_>
      <internalNodes>
        0 -1 828952 6.5127024427056313e-03</internalNodes>
      <leafValues>
        -2.3731100559234619e-01 6.6005396842956543e-01</leafValues></_>
    <_>
      <internalNodes>
        0 -1 970703 1.0257856920361519e-02</internalNodes>
      <leafValues>
        1.7519399523735046e-01 -8.4877771139144897e-01</leafValues></_>
    <_>
      <internalNodes>
        0 -1 640414 8.7444623932242393e-03</internalNodes>
      <leafValues>
        -2.1383692324161530e-01 6.3856232166290283e-01</leafValues></_>
    <_>
      <internalNodes>
        0 -1 1033978 -6.8034566938877106e-03</internalNodes>
      <leafValues>
        4.4686400890350342e-01 -2.8954413533210754e-01</leafValues></_></weakClassifiers></stage10>
</opencv_storage>
