<?xml version="1.0"?>
<opencv_storage>
<stage5>
  <maxWeakCount>13</maxWeakCount>
  <stageThreshold>-1.2004190683364868e+00</stageThreshold>
  <weakClassifiers>
    <_>
      <internalNodes>
        0 -1 7875 -2.9208056628704071e-02</internalNodes>
      <leafValues>
        -9.0384614467620850e-01 4.2241379618644714e-01</leafValues></_>
    <_>
      <internalNodes>
        0 -1 24434 -1.3755754567682743e-02</internalNodes>
      <leafValues>
        6.7651695013046265e-01 -3.4583875536918640e-01</leafValues></_>
    <_>
      <internalNodes>
        0 -1 144644 3.2002314925193787e-02</internalNodes>
      <leafValues>
        2.3058463633060455e-01 -9.6681469678878784e-01</leafValues></_>
    <_>
      <internalNodes>
        0 -1 305815 5.7835620827972889e-04</internalNodes>
      <leafValues>
        -4.4642844796180725e-01 3.7477928400039673e-01</leafValues></_>
    <_>
      <internalNodes>
        0 -1 4319 3.1405441462993622e-02</internalNodes>
      <leafValues>
        1.5590566396713257e-01 -9.4432157278060913e-01</leafValues></_>
    <_>
      <internalNodes>
        0 -1 603825 2.1445658057928085e-03</internalNodes>
      <leafValues>
        -3.1310263276100159e-01 5.8618724346160889e-01</leafValues></_>
    <_>
      <internalNodes>
        0 -1 123353 9.3019567430019379e-03</internalNodes>
      <leafValues>
        -2.9434007406234741e-01 7.3352730274200439e-01</leafValues></_>
    <_>
      <internalNodes>
        0 -1 1415 -3.3161558210849762e-02</internalNodes>
      <leafValues>
        -8.1165009737014771e-01 2.3724053800106049e-01</leafValues></_>
    <_>
      <internalNodes>
        0 -1 528264 7.6083827298134565e-04</internalNodes>
      <leafValues>
        -3.0150866508483887e-01 5.7663959264755249e-01</leafValues></_>
    <_>
      <internalNodes>
        0 -1 495771 3.5327026853337884e-04</internalNodes>
      <leafValues>
        -2.7252122759819031e-01 6.0743486881256104e-01</leafValues></_>
    <_>
      <internalNodes>
        0 -1 1068140 7.4357038829475641e-04</internalNodes>
      <leafValues>
        -1.6894605755805969e-01 8.2314670085906982e-01</leafValues></_>
    <_>
      <internalNodes>
        0 -1 1068140 -7.2202400770038366e-04</internalNodes>
      <leafValues>
        7.8252857923507690e-01 -2.2352476418018341e-01</leafValues></_>
    <_>
      <internalNodes>
        0 -1 89054 -2.6177700608968735e-02</internalNodes>
      <leafValues>
        -8.7341445684432983e-01 2.2778144478797913e-01</leafValues></_></weakClassifiers></stage5>
</opencv_storage>
