<?xml version="1.0"?>
<opencv_storage>
<stage9>
  <maxWeakCount>12</maxWeakCount>
  <stageThreshold>-7.1270966529846191e-01</stageThreshold>
  <weakClassifiers>
    <_>
      <internalNodes>
        0 -1 757965 -1.5705417841672897e-02</internalNodes>
      <leafValues>
        7.5119614601135254e-01 -7.2970196604728699e-02</leafValues></_>
    <_>
      <internalNodes>
        0 -1 637771 -4.8410176532343030e-04</internalNodes>
      <leafValues>
        7.0511364936828613e-01 -1.6326148808002472e-01</leafValues></_>
    <_>
      <internalNodes>
        0 -1 1048449 1.1145782191306353e-03</internalNodes>
      <leafValues>
        -2.8150844573974609e-01 5.7721221446990967e-01</leafValues></_>
    <_>
      <internalNodes>
        0 -1 434535 1.3205542927607894e-04</internalNodes>
      <leafValues>
        -2.8025624155998230e-01 4.4996500015258789e-01</leafValues></_>
    <_>
      <internalNodes>
        0 -1 1071351 9.7584752365946770e-03</internalNodes>
      <leafValues>
        1.0566510260105133e-01 -9.7707486152648926e-01</leafValues></_>
    <_>
      <internalNodes>
        0 -1 1030158 -1.0809316299855709e-03</internalNodes>
      <leafValues>
        7.0051628351211548e-01 -2.2552350163459778e-01</leafValues></_>
    <_>
      <internalNodes>
        0 -1 139741 9.2727001756429672e-03</internalNodes>
      <leafValues>
        -1.9685682654380798e-01 6.7322129011154175e-01</leafValues></_>
    <_>
      <internalNodes>
        0 -1 27728 1.8619205802679062e-02</internalNodes>
      <leafValues>
        1.9870361685752869e-01 -9.4180411100387573e-01</leafValues></_>
    <_>
      <internalNodes>
        0 -1 770723 -1.8122561275959015e-02</internalNodes>
      <leafValues>
        5.5899268388748169e-01 -2.5573286414146423e-01</leafValues></_>
    <_>
      <internalNodes>
        0 -1 94390 1.0110188275575638e-02</internalNodes>
      <leafValues>
        1.4546532928943634e-01 -9.6060162782669067e-01</leafValues></_>
    <_>
      <internalNodes>
        0 -1 613990 3.4086713567376137e-03</internalNodes>
      <leafValues>
        -2.3965016007423401e-01 6.3559693098068237e-01</leafValues></_>
    <_>
      <internalNodes>
        0 -1 841502 3.6892148200422525e-03</internalNodes>
      <leafValues>
        -1.7700521647930145e-01 6.5670758485794067e-01</leafValues></_></weakClassifiers></stage9>
</opencv_storage>
