<?xml version="1.0"?>
<opencv_storage>
<stage6>
  <maxWeakCount>16</maxWeakCount>
  <stageThreshold>-1.1373374462127686e+00</stageThreshold>
  <weakClassifiers>
    <_>
      <internalNodes>
        0 -1 544439 9.9747121334075928e-02</internalNodes>
      <leafValues>
        -1.9693094491958618e-01 6.7726159095764160e-01</leafValues></_>
    <_>
      <internalNodes>
        0 -1 10483 2.5250241160392761e-02</internalNodes>
      <leafValues>
        2.3396070301532745e-01 -8.5847902297973633e-01</leafValues></_>
    <_>
      <internalNodes>
        0 -1 454943 -1.5214405953884125e-02</internalNodes>
      <leafValues>
        7.3265564441680908e-01 -2.1984247863292694e-01</leafValues></_>
    <_>
      <internalNodes>
        0 -1 487122 -6.9249393418431282e-03</internalNodes>
      <leafValues>
        7.2493582963943481e-01 -3.3678969740867615e-01</leafValues></_>
    <_>
      <internalNodes>
        0 -1 92511 1.3944775797426701e-02</internalNodes>
      <leafValues>
        2.7842414379119873e-01 -9.0335160493850708e-01</leafValues></_>
    <_>
      <internalNodes>
        0 -1 681204 2.0867974963039160e-03</internalNodes>
      <leafValues>
        -3.9653664827346802e-01 4.9251261353492737e-01</leafValues></_>
    <_>
      <internalNodes>
        0 -1 18931 -1.8727701157331467e-02</internalNodes>
      <leafValues>
        -8.6468923091888428e-01 1.8489830195903778e-01</leafValues></_>
    <_>
      <internalNodes>
        0 -1 800075 2.1030725911259651e-03</internalNodes>
      <leafValues>
        -2.6388740539550781e-01 5.5084186792373657e-01</leafValues></_>
    <_>
      <internalNodes>
        0 -1 683108 -3.7759686820209026e-03</internalNodes>
      <leafValues>
        5.7050126791000366e-01 -3.0038800835609436e-01</leafValues></_>
    <_>
      <internalNodes>
        0 -1 12137 1.7686955630779266e-02</internalNodes>
      <leafValues>
        2.0522636175155640e-01 -9.2557358741760254e-01</leafValues></_>
    <_>
      <internalNodes>
        0 -1 430444 1.0472266003489494e-03</internalNodes>
      <leafValues>
        -2.8733438253402710e-01 5.5677771568298340e-01</leafValues></_>
    <_>
      <internalNodes>
        0 -1 1039914 9.2172279255464673e-04</internalNodes>
      <leafValues>
        -2.5358337163925171e-01 5.7581114768981934e-01</leafValues></_>
    <_>
      <internalNodes>
        0 -1 347311 -4.0250524878501892e-02</internalNodes>
      <leafValues>
        8.0096250772476196e-01 -1.7262381315231323e-01</leafValues></_>
    <_>
      <internalNodes>
        0 -1 273616 -1.3096292968839407e-03</internalNodes>
      <leafValues>
        4.1400989890098572e-01 -3.6799040436744690e-01</leafValues></_>
    <_>
      <internalNodes>
        0 -1 73058 -1.0336978361010551e-02</internalNodes>
      <leafValues>
        -8.4056282043457031e-01 1.7021000385284424e-01</leafValues></_>
    <_>
      <internalNodes>
        0 -1 1048732 -1.4957266394048929e-03</internalNodes>
      <leafValues>
        6.6150224208831787e-01 -2.4354434013366699e-01</leafValues></_></weakClassifiers></stage6>
</opencv_storage>
