<?xml version="1.0"?>
<opencv_storage>
<stage12>
  <maxWeakCount>14</maxWeakCount>
  <stageThreshold>-9.2121028900146484e-01</stageThreshold>
  <weakClassifiers>
    <_>
      <internalNodes>
        0 -1 638133 5.6544942781329155e-03</internalNodes>
      <leafValues>
        -1.4148680865764618e-01 6.7624020576477051e-01</leafValues></_>
    <_>
      <internalNodes>
        0 -1 251527 7.5354591012001038e-02</internalNodes>
      <leafValues>
        -1.7742958664894104e-01 6.3664901256561279e-01</leafValues></_>
    <_>
      <internalNodes>
        0 -1 86831 2.2869655862450600e-02</internalNodes>
      <leafValues>
        1.5943208336830139e-01 -8.6943471431732178e-01</leafValues></_>
    <_>
      <internalNodes>
        0 -1 755470 -4.7498675994575024e-03</internalNodes>
      <leafValues>
        6.3975036144256592e-01 -2.2177809476852417e-01</leafValues></_>
    <_>
      <internalNodes>
        0 -1 227821 5.9101069346070290e-03</internalNodes>
      <leafValues>
        -2.1747995913028717e-01 7.2685974836349487e-01</leafValues></_>
    <_>
      <internalNodes>
        0 -1 1875 -2.7366347610950470e-02</internalNodes>
      <leafValues>
        5.1148086786270142e-01 -2.2254066169261932e-01</leafValues></_>
    <_>
      <internalNodes>
        0 -1 868680 5.8954078704118729e-03</internalNodes>
      <leafValues>
        -1.5862107276916504e-01 7.1020627021789551e-01</leafValues></_>
    <_>
      <internalNodes>
        0 -1 966608 -7.3615746805444360e-04</internalNodes>
      <leafValues>
        6.6005104780197144e-01 -1.8405866622924805e-01</leafValues></_>
    <_>
      <internalNodes>
        0 -1 848797 -8.1404354423284531e-03</internalNodes>
      <leafValues>
        5.6527924537658691e-01 -2.0692789554595947e-01</leafValues></_>
    <_>
      <internalNodes>
        0 -1 521326 4.7855977900326252e-03</internalNodes>
      <leafValues>
        1.3694112002849579e-01 -8.9284789562225342e-01</leafValues></_>
    <_>
      <internalNodes>
        0 -1 584414 -1.0583512485027313e-03</internalNodes>
      <leafValues>
        6.9560879468917847e-01 -1.8487270176410675e-01</leafValues></_>
    <_>
      <internalNodes>
        0 -1 1056093 -8.9878169819712639e-04</internalNodes>
      <leafValues>
        7.1527886390686035e-01 -1.7465752363204956e-01</leafValues></_>
    <_>
      <internalNodes>
        0 -1 342370 5.2802087739109993e-03</internalNodes>
      <leafValues>
        -1.3541823625564575e-01 7.1230477094650269e-01</leafValues></_>
    <_>
      <internalNodes>
        0 -1 395375 -7.6852394267916679e-03</internalNodes>
      <leafValues>
        -9.1661930084228516e-01 1.5364849567413330e-01</leafValues></_></weakClassifiers></stage12>
</opencv_storage>
