<?xml version="1.0"?>
<opencv_storage>
<stage4>
  <maxWeakCount>8</maxWeakCount>
  <stageThreshold>-9.6722114086151123e-01</stageThreshold>
  <weakClassifiers>
    <_>
      <internalNodes>
        0 -1 308356 -2.6672754902392626e-03</internalNodes>
      <leafValues>
        6.7064440250396729e-01 -2.1259842813014984e-01</leafValues></_>
    <_>
      <internalNodes>
        0 -1 182476 -2.7865506708621979e-02</internalNodes>
      <leafValues>
        -9.3648904561996460e-01 2.5603908300399780e-01</leafValues></_>
    <_>
      <internalNodes>
        0 -1 918507 -2.6259116828441620e-02</internalNodes>
      <leafValues>
        -8.7249106168746948e-01 2.0172363519668579e-01</leafValues></_>
    <_>
      <internalNodes>
        0 -1 919852 2.9897736385464668e-04</internalNodes>
      <leafValues>
        -3.5395446419715881e-01 6.2165838479995728e-01</leafValues></_>
    <_>
      <internalNodes>
        0 -1 371175 4.4478807831183076e-04</internalNodes>
      <leafValues>
        -2.4882380664348602e-01 7.4194139242172241e-01</leafValues></_>
    <_>
      <internalNodes>
        0 -1 23382 1.7628535628318787e-02</internalNodes>
      <leafValues>
        2.2816993296146393e-01 -9.3087273836135864e-01</leafValues></_>
    <_>
      <internalNodes>
        0 -1 53544 5.5816598236560822e-02</internalNodes>
      <leafValues>
        -4.0715619921684265e-01 4.4540026783943176e-01</leafValues></_>
    <_>
      <internalNodes>
        0 -1 638638 -5.1824399270117283e-04</internalNodes>
      <leafValues>
        7.3465055227279663e-01 -2.4719111621379852e-01</leafValues></_></weakClassifiers></stage4>
</opencv_storage>
