<?xml version="1.0"?>
<opencv_storage>
<stage15>
  <maxWeakCount>16</maxWeakCount>
  <stageThreshold>-1.4900275468826294e+00</stageThreshold>
  <weakClassifiers>
    <_>
      <internalNodes>
        0 -1 58558 -1.7683146521449089e-02</internalNodes>
      <leafValues>
        7.7815699577331543e-01 -5.5226825177669525e-02</leafValues></_>
    <_>
      <internalNodes>
        0 -1 263404 -6.1463494785130024e-04</internalNodes>
      <leafValues>
        7.1224087476730347e-01 -1.2933544814586639e-01</leafValues></_>
    <_>
      <internalNodes>
        0 -1 898063 5.0545041449368000e-04</internalNodes>
      <leafValues>
        -2.2542855143547058e-01 5.9393239021301270e-01</leafValues></_>
    <_>
      <internalNodes>
        0 -1 935670 -5.9931227006018162e-03</internalNodes>
      <leafValues>
        -4.7974631190299988e-01 2.5554654002189636e-01</leafValues></_>
    <_>
      <internalNodes>
        0 -1 347705 1.4260831288993359e-02</internalNodes>
      <leafValues>
        -1.5994922816753387e-01 6.9475054740905762e-01</leafValues></_>
    <_>
      <internalNodes>
        0 -1 294071 -7.2595202364027500e-03</internalNodes>
      <leafValues>
        4.8540422320365906e-01 -3.0104869604110718e-01</leafValues></_>
    <_>
      <internalNodes>
        0 -1 94965 2.3186076432466507e-02</internalNodes>
      <leafValues>
        2.0777209103107452e-01 -8.1510484218597412e-01</leafValues></_>
    <_>
      <internalNodes>
        0 -1 469440 1.5972049441188574e-03</internalNodes>
      <leafValues>
        -1.9722388684749603e-01 5.9768390655517578e-01</leafValues></_>
    <_>
      <internalNodes>
        0 -1 37483 2.5081828236579895e-02</internalNodes>
      <leafValues>
        1.0107678174972534e-01 -9.4087612628936768e-01</leafValues></_>
    <_>
      <internalNodes>
        0 -1 729396 2.8511382639408112e-02</internalNodes>
      <leafValues>
        -1.7700308561325073e-01 7.4855953454971313e-01</leafValues></_>
    <_>
      <internalNodes>
        0 -1 877036 -1.8846279010176659e-02</internalNodes>
      <leafValues>
        6.8280994892120361e-01 -2.1002887189388275e-01</leafValues></_>
    <_>
      <internalNodes>
        0 -1 1041026 -1.9838663283735514e-03</internalNodes>
      <leafValues>
        -9.1784572601318359e-01 1.9679498672485352e-01</leafValues></_>
    <_>
      <internalNodes>
        0 -1 1028880 4.4558971421793103e-04</internalNodes>
      <leafValues>
        -3.1291753053665161e-01 4.9390533566474915e-01</leafValues></_>
    <_>
      <internalNodes>
        0 -1 494494 3.0458383844234049e-04</internalNodes>
      <leafValues>
        -2.2673185169696808e-01 4.9208974838256836e-01</leafValues></_>
    <_>
      <internalNodes>
        0 -1 544417 -1.0571577586233616e-02</internalNodes>
      <leafValues>
        6.7882889509201050e-01 -1.4120978116989136e-01</leafValues></_>
    <_>
      <internalNodes>
        0 -1 571173 1.2514067813754082e-02</internalNodes>
      <leafValues>
        -1.9918228685855865e-01 5.9455406665802002e-01</leafValues></_></weakClassifiers></stage15>
</opencv_storage>
